41 131
-1.87373 -0.327679 -0.0912171 -0.112659 -0.023488 -0.0731067 -0.0357183 -0.100279 -0.0285229 -0.0769074 -0.0849464 -0.0634055 -0.0210134 -0.0825258 -0.147784 -0.160605 -0.0491509 -0.0664205 -0.140805 -0.275093 -0.246071 -0.0461789 -0.024998 -0.0307339 -0.110912 -0.0849464 -0.10369 -0.191697 -0.0622888 -0.143466 -0.0756783 -0.107295 -0.213333 -0.0722567 -0.0550683 -0.2051 -0.0357183 -0.0491509 -0.188995 -0.078935 -0.0960266 -0.0729467 -0.596002 -0.0550683 -0.0849464 -0.0230029 -0.439501 -0.069608 -0.0550683 -0.0508809 -0.109103 -0.0672458 -0.0546925 -0.0477541 -0.187267 -0.0825258 -0.26189 -0.241406 -0.0742887 -0.0773237 -0.157019 -0.328414 0.194405 -0.0307339 -0.170782 -0.0833941 -0.0855666 -0.076214 -0.0497799 -0.12871 -0.0690032 -0.118169 0.0788338 -0.157468 -0.0675317 -0.109871 -0.0236387 -0.0881742 -0.0825258 -0.145513 -0.0380648 -0.0546925 -0.0690032 -0.0831448 -0.0508809 -0.0622888 -0.0491509 -0.0769074 -0.0320837 -0.0320837 -0.0634055 -0.0535272 -0.0307339 -0.0903184 -0.0307339 -0.0334959 -0.0717335 -0.0750517 -0.0672458 -0.0307339 -0.0717487 -0.385195 -0.0380648 -0.0672458 0.35923 -0.0709265 -0.13419 -0.024998 -0.12046 -0.0663156 -0.232073 -0.0811472 -0.150846 -0.0550683 -0.0622888 -0.0491509 -0.0622888 -0.0307339 -0.0285229 -0.0547153 0.35923 -0.0621025 -0.294968 -0.0804198 -0.0823977 -0.0779355 -0.0491509 -0.139331 -0.0634055 -0.0320837 -0.225042 -0.287778
-1.81549 -0.305777 -0.0930825 -0.104809 -0.0224154 -0.0616887 -0.0287933 -0.0913844 -0.0252867 -0.0779966 -0.0863132 -0.071789 -0.0214997 -0.0839056 -0.136946 -0.167543 -0.0501076 -0.0675043 -0.142986 -0.259203 -0.240258 -0.0470769 -0.0238668 -0.0313827 -0.109071 -0.0863132 -0.105637 -0.19785 -0.0633039 -0.137446 -0.070585 -0.10426 -0.196472 -0.0733246 -0.0516156 -0.185254 -0.0287933 -0.0501076 -0.179444 0.354183 -0.0987011 -0.0773391 -0.591367 -0.0516156 -0.0863132 -0.382783 -0.043949 -0.0709004 -0.0516156 -0.0518054 -0.101948 -0.0683018 -0.0512511 -0.0486211 -0.177748 -0.0839056 -0.260556 -0.233787 -0.0756707 -0.0635425 -0.160308 -0.307485 -0.190071 -0.0313827 -0.17481 -0.0807663 -0.0873123 -0.0774159 -0.0561471 -0.117114 0.308551 -0.120276 -0.318543 -0.151121 -0.0685306 -0.111747 -0.0212934 -0.089651 -0.0839056 -0.147997 -0.0306498 -0.0512511 0.308551 -0.0875833 -0.0518054 -0.0633039 -0.0501076 -0.0779966 -0.0329539 -0.0329539 -0.071789 -0.0519943 -0.0313827 -0.0920927 -0.0313827 -0.0370396 -0.0727492 -0.0763988 -0.0683018 -0.0313827 -0.0728767 -0.395631 -0.0306498 -0.0683018 -0.0475482 -0.0719805 -0.131407 -0.0238668 -0.117202 -0.0620119 -0.219698 -0.0829061 -0.153418 -0.0516156 -0.0633039 -0.0501076 -0.0633039 -0.0313827 -0.0252867 -0.0508238 -0.0475482 -0.0578066 -0.637597 -0.0818663 -0.0752912 -0.0656094 -0.0501076 -0.142551 -0.071789 -0.0329539 -0.20889 -0.268525
-1.82289 -0.3012 -0.0933617 -0.104966 -0.0211517 -0.0617998 -0.0289537 -0.0914216 -0.0236836 0.327978 -0.086097 -0.0716919 -0.0205046 -0.0838417 -0.137225 -0.158916 -0.0501776 -0.0676522 -0.14899 -0.25423 -0.231182 -0.0471409 -0.0225167 -0.0294287 -0.107412 -0.086097 -0.103939 -0.187718 -0.063441 -0.134362 -0.0706993 -0.104322 -0.192694 -0.0810276 -0.051751 -0.185302 -0.0289537 -0.0501776 -0.179942 -0.0803613 -0.0937257 -0.0749375 -0.577449 -0.051751 -0.086097 -0.377656 -0.430899 -0.0707352 -0.051751 -0.0519316 -0.102047 -0.0757827 -0.0513685 -0.0487384 -0.17819 -0.0838417 -0.27229 -0.240176 -0.0754937 -0.0636229 -0.160728 -0.306205 -0.190208 -0.0294287 -0.169623 -0.0800232 -0.0875708 -0.0773249 -0.0509168 -0.112704 -0.0702443 -0.120394 -0.314173 -0.150854 -0.0756272 -0.112 -0.0214199 -0.0895828 -0.0838417 -0.147742 -0.0308209 -0.0513685 -0.0702443 -0.0822163 -0.0519316 -0.063441 -0.0501776 0.327978 -0.0330847 -0.0330847 -0.0716919 -0.0522234 -0.0294287 -0.0924136 -0.0294287 -0.0344415 0.305467 -0.076514 -0.0757827 -0.0294287 -0.0809157 -0.0140759 -0.0308209 -0.0757827 -0.0476942 -0.079324 -0.131308 -0.0225167 -0.123609 -0.0621083 -0.214464 -0.0802017 -0.153156 -0.051751 -0.063441 -0.0501776 -0.063441 -0.0294287 -0.0236836 -0.0509894 -0.0476942 -0.057798 -0.63051 -0.0819928 -0.0751954 -0.06573 -0.0501776 -0.139723 -0.0716919 -0.0330847 -0.207278 -0.265941
-1.86781 0.0628892 -0.0918963 -0.108086 -0.0249268 -0.0662319 -0.0302557 -0.0899198 -0.0264737 -0.0771789 -0.0851439 -0.0637325 -0.021056 -0.0827558 -0.136988 -0.161485 -0.0495236 -0.0665548 -0.141011 -0.260952 -0.233705 -0.0465288 -0.0265352 -0.0289506 -0.109104 -0.0851439 -0.102469 -0.190828 -0.0624147 -0.160789 -0.0757635 -0.102878 -0.207635 -0.0723069 0.335475 -0.182864 -0.0302557 -0.0495236 -0.178896 -0.0792678 -0.095074 -0.0735629 -0.596813 0.335475 -0.0851439 -0.384774 -0.432582 -0.0698125 0.335475 -0.051089 -0.110107 -0.0674125 -0.0609565 -0.0479495 -0.177332 -0.0827558 -0.273974 -0.245358 -0.0745074 -0.062665 -0.160987 -0.343176 -0.191336 -0.0289506 -0.170092 -0.08421 -0.0862022 -0.0764548 -0.0499785 -0.11981 -0.0692917 -0.118715 -0.34966 -0.148989 -0.0675799 -0.110191 -0.0207391 -0.0884205 -0.0827558 -0.145956 -0.0322165 -0.0609565 -0.0692917 -0.0817128 -0.051089 -0.0624147 -0.0495236 -0.0771789 -0.0376695 -0.0376695 -0.0637325 -0.0486475 -0.0289506 -0.0908131 -0.0289506 -0.0338254 -0.0719859 -0.0754876 -0.0674125 -0.0289506 -0.071927 -0.381186 -0.0322165 -0.0674125 -0.0507477 -0.0709528 -0.129652 -0.0265352 -0.120706 -0.0663936 -0.221025 -0.0773749 -0.151307 0.335475 -0.0624147 -0.0495236 -0.0624147 -0.0289506 -0.0264737 -0.0549234 -0.0507477 -0.0569525 -0.312316 -0.0808911 -0.0743101 -0.070519 -0.0495236 -0.145698 -0.0637325 -0.0376695 -0.239432 0.0824714
-1.80569 -0.303167 -0.093405 -0.105054 -0.0211379 -0.0618784 -0.0288825 -0.0915087 -0.0252977 -0.0783556 -0.0865496 -0.0646681 -0.0215348 -0.0841344 -0.137358 -0.162121 -0.0502848 -0.0677757 -0.143521 -0.262297 0.135611 -0.0472426 -0.0225019 -0.0339761 -0.109311 -0.0865496 0.270417 -0.195208 -0.0635576 -0.134439 -0.0708096 -0.104539 -0.196938 -0.073714 -0.0518418 -0.185717 -0.0288825 -0.0502848 -0.18001 -0.0806063 -0.093671 -0.0775036 -0.585193 -0.0518418 -0.0865496 -0.383638 -0.43349 -0.0710939 -0.0518418 -0.0520297 -0.102258 -0.0686147 -0.0514757 -0.0488309 -0.178267 -0.0841344 -0.257389 -0.23324 -0.0758775 -0.0636522 -0.158667 -0.305182 -0.190517 -0.0339761 -0.175394 -0.0788521 -0.0876134 -0.0776132 -0.0508333 -0.119758 -0.0704589 -0.120618 -0.3181 -0.151518 -0.0688922 -0.112209 -0.0212395 -0.0898959 -0.0841344 -0.148386 -0.0307447 -0.0514757 -0.0704589 -0.0902397 -0.0520297 -0.0635576 -0.0502848 -0.0783556 -0.0331642 -0.0331642 -0.0646681 -0.0497119 -0.0339761 -0.0924527 -0.0339761 -0.0370682 -0.0730828 0.302158 -0.0686147 -0.0339761 -0.0732117 -0.387907 -0.0307447 -0.0686147 -0.0476884 -0.0723487 -0.131705 -0.0225019 -0.117674 -0.0622081 -0.220174 -0.0831347 -0.153822 -0.0518418 -0.0635576 -0.0502848 -0.0635576 -0.0339761 -0.0252977 -0.050968 -0.0476884 -0.0579154 -0.635861 0.324368 -0.0754825 -0.0658115 -0.0502848 -0.140735 -0.0646681 -0.0331642 -0.208488 -0.266236
-1.83445 -0.301223 -0.0972862 -0.110327 -0.0211615 -0.0616891 -0.0288099 -0.0898625 -0.023695 -0.0779265 -0.086025 -0.0645383 -0.0205297 -0.0836701 -0.142623 -0.158823 -0.0499036 -0.0675298 -0.142714 -0.253981 -0.230019 -0.0468832 -0.0225271 -0.0294774 -0.107252 -0.086025 -0.103845 -0.187727 -0.0633262 -0.134457 -0.0705183 -0.109482 -0.196413 -0.0733124 -0.0516748 -0.184525 -0.0288099 -0.0499036 -0.189096 -0.0803854 -0.0937179 -0.0788708 -0.577629 -0.0516748 -0.086025 -0.379445 -0.420903 -0.0884502 -0.0516748 -0.0516308 -0.107394 -0.0680547 -0.0512831 -0.0484564 -0.18737 -0.0836701 -0.25682 -0.248923 -0.094535 -0.0635007 -0.158086 -0.303027 -0.189627 -0.0294774 -0.166472 -0.0779564 -0.0912452 0.309899 -0.0509336 -0.111605 -0.0702632 0.262724 -0.312815 -0.168082 -0.0685164 -0.111605 -0.0202308 -0.0893992 -0.0836701 0.221208 -0.0306681 -0.0512831 -0.0702632 -0.0822874 -0.0516308 -0.0633262 -0.0499036 -0.0779265 -0.0331757 -0.0331757 -0.0645383 -0.0489045 -0.0294774 -0.0960463 -0.0294774 -0.0344389 -0.0726828 -0.0763745 -0.0680547 -0.0294774 -0.0726127 -0.385267 -0.0306681 -0.0680547 -0.0476423 -0.0719788 0.250148 -0.0225271 -0.117305 -0.0619491 -0.218099 -0.0780724 0.242333 -0.0516748 -0.0633262 -0.0499036 -0.0633262 -0.0294774 -0.023695 -0.0509251 -0.0476423 -0.0636344 -0.628792 -0.0818435 -0.0747932 -0.0656124 -0.0499036 -0.143715 -0.0645383 -0.0331757 -0.207399 -0.266009
-1.86164 -0.308897 -0.0983231 -0.108663 -0.0232024 -0.0606761 -0.0302949 -0.09115 -0.0264918 -0.077028 -0.085216 -0.0704101 -0.0254204 -0.0828253 -0.140676 0.249546 -0.0530037 -0.0727937 -0.141131 -0.286899 -0.257175 -0.04975 -0.0247115 -0.0356017 -0.109191 -0.085216 -0.108189 0.187397 -0.0682208 -0.141931 -0.0694554 -0.106218 -0.197225 -0.0723647 -0.0506984 -0.185783 -0.0302949 -0.0530037 -0.185831 -0.0882363 0.301638 -0.0902736 -0.260837 -0.0506984 -0.085216 -0.386489 -0.0700547 -0.070064 -0.0506984 -0.0551921 -0.100119 -0.0674784 -0.0502879 -0.0517732 -0.183645 -0.0828253 -0.262452 -0.234006 -0.0747772 -0.0623352 -0.169021 -0.322269 -0.18705 -0.0356017 -0.197224 -0.0853486 -0.0921535 -0.0764567 0.35257 -0.120201 -0.0770108 -0.12166 -0.32913 -0.1493 -0.0676341 -0.119787 -0.0219212 -0.088495 -0.0828253 -0.146209 -0.0322448 -0.0502879 -0.0770108 -0.105744 -0.0551921 -0.0682208 -0.0530037 -0.077028 -0.0344774 -0.0344774 -0.0704101 -0.0539907 -0.0356017 -0.0976545 -0.0356017 -0.0478018 -0.0718466 -0.0750214 -0.0674784 -0.0356017 -0.0719972 -0.392748 -0.0322448 -0.0674784 -0.0467295 -0.0710113 -0.129517 -0.0247115 -0.121482 -0.061026 -0.241545 -0.0921744 -0.15156 -0.0506984 -0.0682208 -0.0530037 -0.0682208 -0.0356017 -0.0264918 -0.0556388 -0.0467295 -0.0568052 -0.650287 -0.0803835 -0.074366 -0.0645291 -0.0530037 -0.153452 -0.0704101 -0.0344774 -0.222306 -0.279302
-1.83594 -0.300829 -0.0977983 -0.104397 -0.0211354 -0.0614293 -0.0288086 0.273101 -0.0236237 -0.0778559 -0.0859714 -0.0644706 -0.0204979 -0.0836199 -0.13658 -0.158533 -0.054793 -0.0674782 -0.142618 -0.268109 -0.230603 -0.0514562 -0.0224995 -0.0293408 -0.107131 -0.0859714 -0.103655 -0.187306 -0.063278 -0.134324 -0.0704771 -0.108581 -0.192102 -0.0732528 -0.0516036 0.184879 -0.0288086 -0.054793 -0.179138 -0.0803195 -0.093593 -0.0747119 -0.578119 -0.0516036 -0.0859714 -0.393273 -0.421315 -0.0792474 -0.0516036 -0.0518112 -0.101586 -0.0680946 -0.0512512 -0.0486255 -0.182117 -0.0836199 -0.25647 -0.240808 -0.0846378 -0.0795981 -0.162637 -0.303682 0.179145 -0.0293408 -0.167129 -0.0778007 -0.0917081 -0.0768531 -0.0508965 -0.112383 -0.0702059 -0.119745 -0.318511 0.258064 -0.068461 -0.111725 -0.0213451 -0.0893456 -0.0836199 -0.155746 -0.0306662 -0.0512512 -0.0702059 -0.0820671 -0.0518112 -0.063278 -0.054793 -0.0778559 -0.0331277 -0.0331277 -0.0644706 -0.0498387 -0.0293408 -0.0921258 -0.0293408 -0.0343835 -0.0726171 -0.0763117 -0.0680946 -0.0293408 -0.0726558 -0.386067 -0.0306662 -0.0680946 -0.0523362 -0.0719254 -0.130486 -0.0224995 -0.117095 -0.0619142 -0.21364 -0.0777988 -0.161134 -0.0516036 -0.063278 -0.054793 -0.063278 -0.0293408 -0.0236237 -0.0507712 -0.0523362 -0.0574203 -0.633216 -0.081776 0.31597 -0.0653335 -0.054793 -0.139466 -0.0644706 -0.0331277 -0.207079 -0.265635
-1.95247 -0.334967 -0.10111 -0.104933 -0.0237948 -0.0648256 -0.0316786 -0.0986536 -0.0273715 -0.0832052 -0.0830334 -0.0754782 -0.0294155 -0.0809177 -0.150147 -0.177583 -0.0570344 -0.0708357 -0.150608 -0.279027 -0.269717 -0.0535076 -0.0253402 -0.0417538 -0.108161 -0.0830334 -0.111814 -0.217104 -0.0663896 -0.161471 -0.0675024 -0.113886 -0.199954 -0.0856825 -0.0489247 -0.191921 -0.0316786 -0.0570344 -0.194082 -0.0853495 -0.105102 -0.0827494 -0.282537 -0.0489247 -0.0830334 -0.0283236 -0.105067 -0.0683266 -0.0489247 -0.0595837 -0.106728 -0.0723488 -0.0535082 -0.0558637 -0.191535 -0.0809177 0.0852623 -0.250276 -0.0729198 -0.0668137 0.228674 0.034293 -0.192738 -0.0417538 0.19638 0.301485 -0.0947383 -0.0747548 -0.0573035 -0.140044 -0.0745058 -0.118719 -0.351552 -0.145385 -0.0798731 -0.122035 -0.0313454 -0.0864536 -0.0809177 -0.142783 -0.033727 -0.0535082 -0.0745058 -0.109982 -0.0595837 -0.0663896 -0.0570344 -0.0832052 -0.0493506 -0.0493506 -0.0754782 0.358224 -0.0417538 -0.10088 -0.0417538 -0.0414385 -0.0775516 -0.072919 -0.0723488 -0.0417538 -0.0772396 -0.051194 -0.033727 -0.0723488 -0.0496323 -0.0845523 -0.131453 -0.0253402 -0.125134 -0.0593194 -0.232826 0.319041 -0.14801 -0.0489247 -0.0663896 -0.0570344 -0.0663896 -0.0417538 -0.0273715 -0.0482309 -0.0496323 -0.0607268 -0.667515 -0.0781242 -0.072325 -0.0690063 -0.0570344 -0.16125 -0.0754782 -0.0493506 -0.247801 -0.298885
-1.90673 0.0222606 -0.0901469 -0.106439 -0.0311762 -0.0649306 -0.0321192 -0.0912277 -0.0276278 -0.0760049 -0.0840276 -0.0625782 -0.0233635 -0.0817714 -0.137186 -0.160562 -0.0486111 -0.0652058 -0.14617 -0.258848 -0.238907 -0.0456763 -0.0331746 -0.0282256 -0.109268 -0.0840276 -0.100784 -0.189258 -0.0611545 -0.197463 -0.0742624 -0.101242 -0.21954 -0.0792035 -0.06644 -0.180219 -0.0321192 -0.0486111 -0.178235 -0.0780204 -0.109708 -0.0719793 -0.642682 -0.06644 -0.0840276 -0.397222 -0.446508 -0.0686987 -0.06644 -0.0499911 -0.11386 -0.0660847 -0.0658141 -0.0469225 -0.176857 -0.0817714 0.126895 -0.269787 -0.0733154 -0.0617648 -0.173685 0.0226532 -0.194654 -0.0282256 -0.187478 -0.100641 -0.0845706 -0.0756421 -0.0487328 -0.134151 -0.0682072 -0.117069 0.0546656 -0.146905 -0.073932 -0.107911 -0.0229014 -0.087367 -0.0817714 -0.144038 -0.0342121 -0.0658141 -0.0682072 -0.0825438 -0.0499911 -0.0611545 -0.0486111 -0.0760049 -0.0485 -0.0485 -0.0625782 -0.0544361 -0.0282256 -0.088934 -0.0282256 -0.0330236 -0.0708937 -0.0744759 -0.0660847 -0.0282256 -0.0705055 -0.395267 -0.0342121 -0.0660847 -0.0559701 -0.078168 -0.128119 -0.0331746 -0.125925 -0.0650914 -0.224731 -0.082756 -0.149329 -0.06644 -0.0611545 -0.0486111 -0.0611545 -0.0282256 -0.0276278 -0.0539933 -0.0559701 -0.0561781 -0.324975 -0.0798044 -0.0733984 -0.0691261 -0.0486111 -0.147656 -0.0625782 -0.0485 0.136836 0.0576405
-1.98137 -0.306631 -0.0949823 -0.11389 -0.0222828 -0.0636174 -0.0312164 -0.0939095 -0.028857 -0.074778 -0.0828177 -0.0667367 -0.0320515 -0.0804697 -0.143035 -0.203365 -0.0513085 -0.070303 -0.137126 0.0292891 0.0200842 -0.0481631 -0.0237314 0.307085 -0.109192 -0.0828177 0.198906 0.0758383 -0.0658918 -0.141677 -0.067056 -0.107422 -0.204256 -0.0701975 -0.0492807 -0.191277 -0.0312164 -0.0513085 -0.186185 -0.083471 -0.10458 -0.0989481 -0.322016 -0.0492807 -0.0828177 -0.106146 -0.188129 -0.0682414 -0.0492807 -0.053314 -0.101457 -0.0655702 -0.0486121 -0.0500148 -0.184181 -0.0804697 -0.264381 -0.234494 -0.0728303 -0.0718794 -0.174694 -0.332071 -0.197067 0.307085 0.114801 -0.100002 -0.0890338 -0.0743991 -0.0610322 0.208856 -0.0728846 -0.117962 -0.337398 -0.144899 -0.0656108 -0.115714 -0.0269415 -0.085974 -0.0804697 -0.142344 -0.033234 -0.0486121 -0.0728846 0.220342 -0.053314 -0.0658918 -0.0513085 -0.074778 -0.0363532 -0.0363532 -0.0667367 -0.065823 0.307085 -0.0942398 0.307085 -0.0580205 -0.0697507 -0.0869828 -0.0655702 0.307085 -0.0699588 -0.392888 -0.033234 -0.0655702 -0.0488671 -0.068951 -0.130357 -0.0237314 -0.122221 -0.0589286 -0.260102 0.214526 -0.147545 -0.0492807 -0.0658918 -0.0513085 -0.0658918 0.307085 -0.028857 -0.0579886 -0.0488671 -0.0599292 -0.667416 -0.0934234 -0.0719486 -0.0677109 -0.0513085 -0.154705 -0.0667367 -0.0363532 -0.222842 -0.269718
-2.01943 -0.35981 -0.0938583 -0.107315 -0.0295945 -0.0692377 -0.0364694 0.332853 -0.0346255 -0.082479 -0.0816862 -0.0748625 -0.0273401 -0.0793777 -0.147799 -0.179703 -0.0506921 -0.0695755 -0.141047 -0.287502 0.106013 -0.0475848 -0.0315236 -0.0443952 -0.113842 -0.0816862 -0.120435 -0.222801 -0.06521 -0.169634 -0.0716293 -0.1066 -0.234783 -0.0762831 -0.0518075 -0.191364 -0.0364694 -0.0506921 -0.190408 -0.0838195 -0.108307 -0.0846886 -0.289198 -0.0518075 -0.0816862 -0.0435946 -0.10672 -0.0743306 -0.0518075 -0.0526293 -0.109339 -0.0798902 -0.0573768 -0.049373 -0.188473 -0.0793777 -0.29659 0.125892 -0.0793768 -0.0651307 -0.186598 0.0425611 -0.207728 -0.0443952 0.176255 -0.115935 -0.0879822 -0.0733211 -0.056045 0.243239 -0.0731735 -0.11638 0.0199709 -0.158978 -0.0712088 -0.114395 0.408039 -0.0848051 -0.0793777 -0.147333 -0.03886 -0.0573768 -0.0731735 -0.113139 -0.0526293 -0.06521 -0.0506921 -0.082479 -0.0380157 -0.0380157 -0.0748625 0.32984 -0.0443952 -0.0930806 -0.0443952 -0.0442284 -0.0768714 -0.0791082 -0.0798902 -0.0443952 -0.0853558 -0.0139289 -0.03886 -0.0798902 -0.0595085 -0.0748512 -0.129076 -0.0315236 -0.120385 -0.0627957 -0.256847 -0.120894 -0.152461 -0.0518075 -0.06521 -0.0506921 -0.06521 -0.0443952 -0.0346255 -0.051583 -0.0595085 -0.0597109 -0.34062 -0.0848699 -0.0793608 -0.0737925 -0.0506921 -0.150655 -0.0748625 -0.0380157 -0.262424 -0.317814
-1.89893 -0.308243 -0.117156 -0.113607 -0.021823 -0.0604018 -0.0356248 -0.08953 -0.0246242 -0.0766325 -0.0846075 -0.063282 -0.0223161 -0.0822854 0.192333 -0.163532 -0.0565278 -0.0798426 -0.140292 -0.25492 -0.233551 -0.0530351 -0.0232366 -0.0307369 -0.106794 -0.0846075 -0.103613 -0.193529 -0.0747829 -0.143468 -0.0690672 -0.120386 -0.20679 -0.0719346 -0.0505931 -0.188392 -0.0356248 -0.0565278 0.156147 -0.0787376 -0.0987561 -0.0927746 -0.292729 -0.0505931 -0.0846075 -0.392165 -0.433441 -0.0696768 -0.0505931 0.318876 -0.11061 -0.0672013 -0.0501327 0.297984 -0.218724 -0.0822854 -0.264782 -0.231047 -0.074364 -0.0622195 0.174129 -0.314292 -0.186301 -0.0307369 -0.17975 -0.0825205 -0.109715 -0.0755059 -0.0536272 -0.111799 -0.0688296 -0.135999 -0.321763 -0.148342 -0.0672312 0.223048 -0.0207951 -0.0879174 -0.0822854 -0.144876 -0.0379125 -0.0501327 -0.0688296 -0.0867864 0.318876 -0.0747829 -0.0565278 -0.0766325 -0.0376392 -0.0376392 -0.063282 -0.0531266 -0.0307369 0.261664 -0.0307369 -0.0359896 -0.0714772 -0.0749615 -0.0672013 -0.0307369 -0.0717024 -0.383554 -0.0379125 -0.0672013 -0.0466324 -0.0706979 -0.139195 -0.0232366 -0.115115 -0.06068 -0.237972 -0.0847352 -0.150155 -0.0505931 -0.0747829 -0.0565278 -0.0747829 -0.0307369 -0.0246242 -0.0499175 -0.0466324 -0.0682164 -0.633657 -0.0803262 -0.0738305 -0.0642396 -0.0565278 0.184132 -0.063282 -0.0376392 -0.216028 -0.27535
-1.82155 -0.303454 -0.0934687 -0.105146 -0.0211974 -0.0618885 -0.0289772 -0.0903851 -0.0254077 -0.0781875 -0.0863337 -0.0647019 -0.0205532 0.296357 -0.137416 -0.159243 -0.0502592 -0.067753 -0.14319 -0.254707 -0.232298 -0.0472174 -0.0225654 -0.0295196 0.270999 -0.0863337 -0.104121 -0.188188 -0.0635354 -0.134733 -0.0707418 -0.104481 -0.194702 -0.073552 -0.0517677 -0.185601 -0.0289772 -0.0502592 -0.180158 -0.0806208 -0.0939395 -0.0750487 -0.57731 -0.0517677 -0.0863337 -0.376674 -0.423562 -0.0709535 -0.0517677 -0.0520202 -0.102182 -0.0684949 -0.0514296 -0.0488215 -0.178399 0.296357 -0.257404 -0.232241 -0.0757276 -0.0637218 -0.158883 -0.303631 -0.190488 -0.0295196 -0.16676 -0.0781141 -0.087671 -0.0774296 -0.0510593 -0.111819 -0.0704691 -0.120524 -0.315172 -0.151207 -0.0687405 -0.112177 -0.0202623 0.316927 0.296357 -0.148063 -0.0308458 -0.0514296 -0.0704691 -0.0824376 -0.0520202 -0.0635354 -0.0502592 -0.0781875 -0.0332285 -0.0332285 -0.0647019 -0.0489837 -0.0295196 -0.092526 -0.0295196 -0.0345289 -0.0729261 -0.0766119 -0.0684949 -0.0295196 -0.073084 -0.386592 -0.0308458 -0.0684949 -0.0477441 -0.0721975 -0.13149 -0.0225654 -0.117675 -0.0621466 -0.214748 -0.0781852 -0.153486 -0.0517677 -0.0635354 -0.0502592 -0.0635354 -0.0295196 -0.0254077 -0.0510924 -0.0477441 -0.0578813 -0.632121 -0.0820975 -0.0753214 -0.0658242 -0.0502592 -0.139972 -0.0647019 -0.0332285 -0.207791 -0.266508
-1.84786 -0.306844 -0.0928468 -0.109627 -0.0209845 -0.0613459 -0.0288039 -0.0907976 -0.0235494 -0.0855957 -0.0946709 -0.0704975 -0.0203643 -0.0833292 -0.136399 -0.157766 -0.0498727 -0.0672077 0.223231 -0.258173 -0.229683 -0.0468549 -0.0223388 -0.0292387 -0.106767 -0.0946709 -0.103299 -0.192571 -0.0630248 -0.138167 -0.070188 -0.103708 -0.191449 -0.0889119 -0.0512513 -0.184193 -0.0288039 -0.0498727 -0.178905 -0.0798238 -0.0929379 -0.0745068 -0.580671 -0.0512513 -0.0946709 -0.377513 -0.431822 -0.0703698 -0.0512513 -0.051571 -0.101287 -0.0746033 -0.050881 -0.0484005 -0.177208 -0.0833292 0.118359 -0.237779 -0.0751036 -0.0632131 -0.164914 -0.311572 -0.189032 -0.0292387 -0.173654 -0.0817605 -0.0870889 -0.0768775 -0.0505416 -0.111852 -0.0697759 -0.119738 -0.315151 -0.15004 -0.0828728 -0.111249 -0.0211871 -0.0890344 -0.0833292 -0.146932 -0.0306614 -0.050881 -0.0697759 -0.081667 -0.051571 -0.0630248 -0.0498727 -0.0855957 -0.0356045 -0.0356045 -0.0704975 -0.0542977 -0.0292387 -0.0918564 -0.0292387 -0.0342076 -0.0797773 -0.0760509 -0.0746033 -0.0292387 -0.0796509 -0.0514862 -0.0306614 -0.0746033 -0.0473704 0.358273 -0.130554 -0.0223388 0.252181 -0.0616617 -0.213135 -0.0821764 -0.152314 -0.0512513 -0.0630248 -0.0498727 -0.0630248 -0.0292387 -0.0235494 -0.0559889 -0.0473704 -0.0574682 -0.636569 -0.0814965 -0.074774 -0.0652461 -0.0498727 -0.141163 -0.0704975 -0.0356045 -0.211453 -0.271642
-1.82707 -0.307448 -0.0931224 -0.104736 -0.0210277 -0.061649 -0.0288784 -0.0911483 -0.0235991 -0.0861876 -0.0858435 -0.0709448 -0.0204188 -0.0837135 -0.136894 -0.158497 -0.0500311 -0.0674781 -0.155906 -0.253594 -0.230492 -0.0470039 -0.0223847 -0.0293377 -0.1072 -0.0858435 -0.103744 -0.187139 -0.0632784 -0.138268 -0.0705517 -0.104104 -0.192123 0.340649 -0.0514896 -0.184966 -0.0288784 -0.0500311 -0.179511 -0.080179 -0.093312 -0.0747519 -0.582119 -0.0514896 -0.0858435 -0.378829 -0.433265 -0.0706555 -0.0514896 -0.0517445 -0.101743 -0.0750788 -0.0511172 -0.0485635 -0.177799 -0.0837135 0.102452 -0.23877 -0.0754087 -0.0635238 -0.165151 -0.312142 -0.189876 -0.0293377 -0.17392 -0.0818807 -0.0873475 -0.0772121 -0.0507749 -0.112182 -0.070086 -0.120189 -0.315933 -0.150665 0.317248 -0.111664 -0.0212416 -0.0894457 -0.0837135 -0.14755 -0.0307407 -0.0511172 -0.070086 -0.081947 -0.0517445 -0.0632784 -0.0500311 -0.0861876 -0.0355483 -0.0355483 -0.0709448 -0.0543314 -0.0293377 -0.0921399 -0.0293377 -0.0343426 -0.0803271 -0.076404 -0.0750788 -0.0293377 -0.08016 -0.0417706 -0.0307407 -0.0750788 -0.047568 -0.0876825 -0.131124 -0.0223847 -0.130617 -0.0619798 -0.213943 -0.0823061 -0.152956 -0.0514896 -0.0632784 -0.0500311 -0.0632784 -0.0293377 -0.0235991 -0.0508305 -0.047568 -0.0577215 -0.633191 -0.0818751 -0.0750928 -0.0655688 -0.0500311 -0.141459 -0.0709448 -0.0355483 -0.211749 -0.272096
-1.86291 -0.317392 -0.0917556 0.263091 -0.0220891 -0.0665498 -0.030342 -0.0899222 -0.0247605 -0.0771509 -0.0851241 -0.0635885 -0.0241621 -0.0828875 -0.142728 -0.18294 -0.0495052 -0.066678 -0.147963 0.114745 -0.245078 -0.046511 -0.0235121 -0.0337784 -0.107531 -0.0851241 -0.106762 0.221138 -0.0625298 -0.138859 -0.0765074 -0.108071 -0.201597 -0.0724607 -0.055793 -0.188938 -0.030342 -0.0495052 -0.184117 -0.0791954 -0.0974011 -0.0797853 -0.593798 -0.055793 -0.0851241 -0.399209 -0.441157 -0.0700823 -0.055793 -0.0511482 -0.110207 -0.0675776 -0.0554309 -0.0480046 -0.182476 -0.0828875 -0.264815 -0.234432 -0.0747968 -0.0689364 -0.155813 -0.314753 -0.19841 -0.0337784 -0.179261 -0.082447 -0.0860702 -0.0764453 -0.0556135 -0.119967 -0.0692304 -0.118584 -0.326497 -0.149116 -0.0677228 -0.110361 -0.0208637 -0.0885617 -0.0828875 -0.146216 -0.032309 -0.0554309 -0.0692304 -0.0955681 -0.0511482 -0.0625298 -0.0495052 -0.0771509 -0.0324182 -0.0324182 -0.0635885 -0.0487958 -0.0337784 -0.0907579 -0.0337784 -0.0401657 -0.0719605 -0.0752822 -0.0675776 -0.0337784 -0.0721037 -0.388226 -0.032309 -0.0675776 -0.0512149 -0.0791565 -0.134842 -0.0235121 0.275383 -0.0670308 -0.237872 -0.0850257 -0.151565 -0.055793 -0.0625298 -0.0495052 -0.0625298 -0.0337784 -0.0247605 0.321682 -0.0512149 -0.0625482 -0.280278 -0.0806666 -0.0741778 -0.0708607 -0.0495052 -0.143011 -0.0635885 -0.0324182 -0.21533 -0.275755
-1.82743 -0.322895 -0.0968664 -0.108942 -0.0220981 -0.0669258 -0.0305015 -0.0907658 -0.026977 -0.0778747 -0.0859766 -0.0643075 -0.0213128 -0.0835466 -0.138012 -0.163052 -0.0499103 -0.0673506 -0.142523 -0.263148 -0.239333 -0.0468907 -0.0235219 -0.029132 -0.110394 -0.0859766 -0.103302 -0.19268 -0.0631593 -0.141996 0.372403 -0.103552 0.20475 -0.0732128 -0.0558553 -0.18432 -0.0305015 -0.0499103 -0.184512 -0.0800898 -0.0926805 -0.0780546 -0.585134 -0.0558553 -0.0859766 -0.391823 -0.43178 -0.0705698 -0.0558553 -0.0515779 -0.105445 -0.0681194 -0.0555938 -0.0484073 -0.182846 -0.0835466 -0.259511 -0.238293 -0.0753171 -0.0631097 -0.157269 -0.315834 -0.193109 -0.029132 -0.166423 -0.0829356 -0.0908347 -0.0770708 -0.0505712 -0.1222 -0.0700082 -0.123907 -0.335696 -0.150448 -0.068424 -0.111389 -0.0209723 -0.0892667 -0.0835466 -0.147324 -0.0324781 -0.0555938 -0.0700082 -0.0823529 -0.0515779 -0.0631593 -0.0499103 -0.0778747 -0.0326934 -0.0326934 -0.0643075 -0.0493018 -0.029132 -0.0955752 -0.029132 -0.0340407 -0.0726345 -0.0761529 -0.0681194 -0.029132 -0.0726824 -0.385285 -0.0324781 -0.0681194 -0.0513983 -0.0718084 -0.130553 -0.0235219 -0.122061 0.324177 -0.23018 -0.0782372 -0.15272 -0.0558553 -0.0631593 -0.0499103 -0.0631593 -0.029132 -0.026977 -0.0554957 -0.0513983 -0.0572591 -0.293744 -0.0816033 -0.0749698 -0.0712587 -0.0499103 -0.145578 -0.0643075 -0.0326934 -0.215978 -0.279423
-1.84205 -0.316768 -0.0962137 -0.114333 -0.0219978 -0.0665311 -0.03316 -0.0901116 -0.0246139 -0.0775632 -0.0855989 -0.0638301 -0.0261064 -0.0832361 -0.140009 0.216238 -0.0495252 -0.066803 -0.141882 0.134275 -0.251535 -0.046531 -0.0234149 -0.0308824 -0.107733 -0.0855989 -0.104345 -0.219826 -0.0626479 -0.138502 -0.0763242 -0.102779 -0.208646 -0.0729377 -0.0557531 -0.189777 -0.03316 -0.0495252 -0.186239 -0.0794268 -0.0971311 -0.0881765 -0.603515 -0.0557531 -0.0855989 -0.397622 -0.44728 -0.0703499 -0.0557531 -0.0511172 -0.104896 -0.0679188 -0.0554203 -0.0479764 -0.184648 -0.0832361 -0.258136 -0.234662 -0.0750826 -0.0694731 -0.155897 -0.316333 -0.199159 -0.0308824 -0.182582 -0.0843067 -0.0902258 -0.0767593 -0.0553348 -0.120528 -0.0694335 -0.123329 -0.331921 -0.14969 -0.0681664 -0.11045 -0.020785 -0.0889347 -0.0832361 -0.146795 -0.0353215 -0.0554203 -0.0694335 -0.098579 -0.0511172 -0.0626479 -0.0495252 -0.0775632 -0.0324714 -0.0324714 -0.0638301 -0.0487611 -0.0308824 -0.0948645 -0.0308824 -0.04442 -0.0723441 -0.0755576 -0.0679188 -0.0308824 -0.0724686 -0.383265 -0.0353215 -0.0679188 -0.0511022 -0.0714714 -0.129856 -0.0234149 -0.128006 -0.0668807 0.209158 -0.0843067 -0.152168 -0.0557531 -0.0626479 -0.0495252 -0.0626479 -0.0308824 -0.0246139 -0.0613092 -0.0511022 -0.0568438 -0.292666 -0.0809612 -0.0744658 -0.0708369 -0.0495252 -0.149126 -0.0638301 -0.0324714 -0.216951 -0.275296
-1.93606 -0.0111095 -0.10148 -0.100835 -0.0295837 -0.0590845 -0.029413 -0.0904577 -0.0252631 -0.0754546 -0.083544 -0.0619262 -0.0248164 -0.0813463 -0.142847 -0.166046 -0.0571191 -0.0709369 -0.144501 -0.259194 -0.240553 -0.0535893 -0.0315091 -0.0326428 -0.106492 -0.083544 -0.104344 -0.197597 -0.0664856 0.187709 -0.0674542 -0.1094 -0.201799 -0.0776766 -0.0588273 -0.187545 -0.029413 -0.0571191 -0.187425 -0.077262 -0.109663 -0.0804826 -0.303651 -0.0588273 -0.083544 -0.383138 -0.461118 -0.068446 -0.0588273 -0.0596127 -0.106389 -0.0657399 -0.0580793 -0.0558922 -0.184934 -0.0813463 0.0603043 -0.26037 -0.0730462 -0.0616052 0.205554 -0.0247759 -0.183376 -0.0326428 0.197979 -0.105634 -0.0950865 -0.0751717 -0.05225 -0.126131 -0.0675491 -0.119419 -0.376797 -0.146269 -0.0725187 -0.122159 -0.0224654 -0.0869124 -0.0813463 -0.143318 -0.0313055 -0.0580793 -0.0675491 -0.0939212 -0.0596127 -0.0664856 -0.0571191 -0.0754546 0.358348 0.358348 -0.0619262 -0.0639794 -0.0326428 -0.101176 -0.0326428 -0.0389032 -0.0703816 -0.0739081 -0.0657399 -0.0326428 -0.0701374 -0.399885 -0.0313055 -0.0657399 -0.0451365 -0.0767494 -0.127308 -0.0315091 -0.119027 -0.0592864 -0.219712 -0.0983067 -0.148574 -0.0588273 -0.0664856 -0.0571191 -0.0664856 -0.0326428 -0.0252631 -0.0486995 -0.0451365 -0.0558119 -0.69326 -0.0791937 -0.0730382 -0.0628293 -0.0571191 -0.163688 -0.0619262 0.358348 0.116024 0.017781
-1.86605 -0.365128 -0.098626 -0.102374 -0.0288952 -0.0599994 -0.0328775 -0.0923217 -0.0261016 -0.076938 -0.0850032 -0.0632216 -0.0236707 -0.0826268 -0.143232 -0.172078 -0.0530296 -0.0730934 -0.140638 -0.255906 -0.241304 -0.0497715 -0.0307677 -0.0306863 -0.108604 -0.0850032 -0.103777 -0.20135 -0.0684987 -0.176283 -0.0685403 -0.106017 -0.206448 -0.0719334 -0.0544743 -0.185656 -0.0328775 -0.0530296 -0.188685 -0.0787102 0.312549 -0.0789006 -0.233739 -0.0544743 -0.0850032 -0.389332 -0.453585 -0.0694745 -0.0544743 -0.0552395 -0.103459 -0.0669856 -0.0541431 -0.0518164 -0.186477 -0.0826268 -0.284294 -0.260169 -0.0741449 -0.0624707 -0.178801 0.0470519 -0.191728 -0.0306863 -0.190003 -0.0938534 -0.0924318 -0.0762865 -0.0605498 -0.126866 -0.0688102 -0.121766 0.0721684 -0.148408 -0.0672339 -0.120107 -0.0233612 -0.0882825 -0.0826268 -0.145452 -0.035003 -0.0541431 -0.0688102 -0.0882548 -0.0552395 -0.0684987 -0.0530296 -0.076938 -0.0443535 -0.0443535 -0.0632216 -0.0552025 -0.0306863 -0.0979589 -0.0306863 -0.0361646 -0.0717622 -0.0751723 -0.0669856 -0.0306863 -0.0714691 -0.385779 -0.035003 -0.0669856 -0.0515781 -0.0706709 -0.129121 -0.0307677 -0.114692 -0.060239 -0.224706 -0.0857049 -0.15079 -0.0544743 -0.0684987 -0.0530296 -0.0684987 -0.0306863 -0.0261016 -0.049542 -0.0515781 -0.0565624 -0.689318 -0.0805503 -0.0740817 -0.0638021 -0.0530296 -0.151281 -0.0632216 -0.0443535 0.122505 0.0896189
-1.94884 -0.00639136 -0.0962585 -0.104779 -0.0413435 -0.0638597 -0.034136 -0.0929566 -0.0290711 -0.0752855 -0.0832198 -0.0617278 -0.0244852 -0.0808513 -0.14207 -0.166343 -0.0519049 -0.0712181 -0.137459 -0.261007 -0.24516 -0.0487191 -0.0440648 -0.0298652 -0.109786 -0.0832198 -0.101317 -0.196339 -0.0667453 0.215516 -0.0728669 -0.103758 -0.231293 -0.070121 -0.0648945 -0.181575 -0.034136 -0.0519049 -0.18627 -0.0767727 -0.118305 -0.0768002 -0.255817 -0.0648945 -0.0832198 -0.398375 -0.46725 -0.0757352 -0.0648945 -0.0538434 -0.111194 -0.0729943 -0.0637666 -0.0505096 -0.184333 -0.0808513 -0.303343 0.132996 -0.0808795 -0.0610408 -0.183134 -0.0107562 -0.191186 -0.0298652 -0.197736 -0.111044 -0.0902218 -0.0745721 -0.0522372 -0.147056 -0.0671232 -0.118814 -0.00728976 -0.152909 -0.065544 -0.117058 -0.0255155 -0.0863823 -0.0808513 -0.149977 -0.0363568 -0.0637666 -0.0671232 -0.0873687 -0.0538434 -0.0667453 -0.0519049 -0.0752855 -0.0523858 -0.0523858 -0.0617278 -0.055865 -0.0298652 -0.0954028 -0.0298652 -0.0352254 -0.0702227 -0.0734739 -0.0729943 -0.0298652 -0.0779298 -0.386356 -0.0363568 -0.0729943 -0.0541982 -0.0689057 -0.126278 -0.0440648 -0.116983 -0.0638809 -0.22992 -0.0844035 -0.155197 -0.0648945 -0.0667453 -0.0519049 -0.0667453 -0.0298652 -0.0290711 -0.0531025 -0.0541982 -0.0553482 -0.347607 -0.0787274 -0.0724541 -0.0679809 -0.0519049 -0.158162 -0.0617278 -0.0523858 0.131599 0.0525507
-1.99031 -0.00720755 -0.094861 -0.10371 0.381859 -0.0631572 -0.03368 -0.0940444 -0.0314573 -0.0744095 -0.0823845 -0.0677522 -0.0257818 -0.0800034 -0.140309 -0.173768 -0.0512135 -0.0699864 -0.136021 -0.264061 -0.255795 -0.0480739 0.408132 -0.0314713 -0.111314 -0.0823845 -0.101833 -0.204911 -0.0655952 0.186097 -0.0721331 -0.102598 -0.23292 -0.0692907 -0.0636058 -0.17955 -0.03368 -0.0512135 -0.183779 -0.0848087 -0.120416 -0.0783594 -0.295975 -0.0636058 -0.0823845 -0.405894 -0.0814113 -0.0746494 -0.0636058 -0.0530105 -0.110449 -0.071797 -0.0634698 -0.0497306 -0.181984 -0.0800034 -0.303618 0.105477 -0.0797167 -0.0603275 -0.18169 -0.0097995 -0.189299 -0.0314713 -0.20444 -0.111962 -0.0889196 -0.0738953 -0.0568047 -0.150928 -0.0740311 -0.117434 -0.00929171 -0.151099 -0.0647696 -0.115135 -0.0272417 -0.0854748 -0.0800034 -0.148222 -0.0358714 -0.0634698 -0.0740311 -0.0923346 -0.0530105 -0.0655952 -0.0512135 -0.0744095 -0.0502393 -0.0502393 -0.0677522 -0.0596042 -0.0314713 -0.0939113 -0.0314713 -0.0374456 -0.0694072 -0.0724977 -0.071797 -0.0314713 -0.0766474 -0.392448 -0.0358714 -0.071797 -0.0537452 -0.068137 -0.125135 0.408132 -0.115671 -0.0632376 -0.234116 -0.0893108 -0.153393 -0.0636058 -0.0655952 -0.0512135 -0.0655952 -0.0314713 -0.0314573 -0.0524984 -0.0537452 -0.0548467 -0.352886 -0.0776774 -0.0717726 -0.0672321 -0.0512135 -0.160979 -0.0677522 -0.0502393 0.105965 -0.00151791
-1.84811 -0.299777 -0.0969833 -0.113688 -0.0209757 -0.0668959 -0.0304905 -0.108588 -0.0248363 -0.0775157 -0.0856069 -0.0640343 -0.0213941 -0.0832402 -0.143059 -0.166015 -0.05444 -0.0670596 -0.141952 0.105182 -0.24005 -0.051126 -0.0223296 -0.0336165 -0.107958 -0.0856069 -0.107044 -0.199013 -0.0628867 -0.133299 -0.069812 -0.112967 -0.194117 -0.0729213 -0.051204 0.195315 -0.0304905 -0.05444 -0.184753 -0.079754 -0.0926258 -0.076705 -0.586966 -0.051204 -0.0856069 -0.0288089 -0.430938 -0.0701471 -0.051204 -0.0513705 -0.105874 -0.0679492 -0.0507698 -0.048213 -0.187819 -0.0832402 -0.256794 -0.230833 -0.0748648 0.340868 -0.163564 -0.304177 0.211812 -0.0336165 -0.176125 -0.0802333 -0.0909474 -0.0767575 -0.0502501 -0.118309 -0.0697152 -0.119188 -0.327546 -0.170674 -0.0681515 -0.110924 -0.0210564 -0.0889391 -0.0832402 -0.146591 -0.0324646 -0.0507698 -0.0697152 -0.0895118 -0.0513705 -0.0628867 -0.05444 -0.0775157 -0.0329091 -0.0329091 -0.0640343 -0.051454 -0.0336165 -0.0912537 -0.0336165 -0.0368099 -0.0723003 -0.0757181 -0.0679492 -0.0336165 -0.0725011 -0.385982 -0.0324646 -0.0679492 -0.0576815 -0.0715448 -0.135119 -0.0223296 -0.121679 -0.0613391 -0.225891 -0.0845772 -0.151964 -0.051204 -0.0628867 -0.05444 -0.0628867 -0.0336165 -0.0248363 -0.0553603 -0.0576815 -0.0625168 -0.655436 -0.0811356 -0.094187 -0.0712151 -0.05444 -0.139166 -0.0640343 -0.0329091 -0.206571 -0.263581
-1.92382 -0.306632 0.263365 -0.111865 -0.021631 -0.0597202 -0.0385144 -0.0887381 -0.0261265 -0.0761952 -0.0840312 -0.0628089 -0.0236149 -0.0817011 -0.177135 -0.175077 -0.0699596 -0.0712167 -0.139531 -0.266264 -0.245805 -0.0656261 -0.0230322 -0.0302768 -0.107705 -0.0840312 -0.102447 -0.198802 -0.0667476 -0.141587 -0.0759646 -0.132749 0.14631 -0.071631 -0.0501215 -0.199532 -0.0385144 -0.0699596 0.155316 -0.0780284 -0.0976201 0.269208 -0.299165 -0.0501215 -0.0840312 -0.394982 -0.441376 -0.0689865 -0.0501215 -0.0738827 -0.109141 -0.0668268 -0.0496852 -0.0692578 0.159236 -0.0817011 -0.257909 -0.231304 -0.0736252 -0.0614888 -0.199089 -0.309835 -0.184315 -0.0302768 -0.180459 -0.0831215 0.245733 -0.0839944 -0.0528716 -0.118432 -0.068213 0.248747 -0.330845 -0.146979 -0.0669453 -0.135735 -0.0205889 -0.0872919 -0.0817011 -0.152643 -0.0409998 -0.0496852 -0.068213 -0.0936966 -0.0738827 -0.0667476 -0.0699596 -0.0761952 -0.0341539 -0.0341539 -0.0628089 -0.0499837 -0.0302768 0.237914 -0.0302768 -0.0424876 -0.0710693 -0.0742224 -0.0668268 -0.0302768 -0.0713028 -0.378888 -0.0409998 -0.0668268 -0.0460503 -0.0704383 -0.146599 -0.0230322 -0.114146 -0.0666733 0.109293 -0.0826539 -0.158587 -0.0501215 -0.0667476 -0.0699596 -0.0667476 -0.0302768 -0.0261265 -0.0492246 -0.0460503 -0.0671223 -0.652711 -0.0795303 -0.0731989 -0.063511 -0.0699596 0.208848 -0.0628089 -0.0341539 -0.214847 -0.272508
-1.95646 -0.327351 -0.116412 -0.130828 -0.0242136 -0.0702697 0.343881 -0.0914649 -0.0295236 -0.0753751 -0.0831966 -0.0619692 -0.0230424 -0.0808276 0.221843 -0.174699 -0.0567108 -0.0712927 -0.138024 -0.276131 -0.254808 -0.053226 -0.0257783 -0.0321209 -0.110212 -0.0831966 -0.1032 -0.199927 -0.0668145 -0.147092 -0.0732451 -0.134862 -0.228547 -0.070791 -0.0535468 -0.190879 0.343881 -0.0567108 0.163289 -0.0769881 -0.10142 -0.0941057 -0.256332 -0.0535468 -0.0831966 -0.0746022 -0.452846 -0.0684491 -0.0535468 -0.0662374 -0.127468 -0.0659773 -0.0529371 -0.0620944 0.172803 -0.0808276 -0.26171 -0.240153 -0.0730517 -0.066119 -0.18109 -0.333373 -0.202461 -0.0321209 -0.182244 -0.0852554 -0.10904 -0.0741351 -0.0525874 -0.130822 -0.0673085 -0.133706 0.00686419 -0.145426 -0.0661621 -0.128665 -0.0242094 -0.0863569 -0.0808276 -0.142288 0.367865 -0.0529371 -0.0673085 -0.0909461 -0.0662374 -0.0668145 -0.0567108 -0.0753751 -0.0336337 -0.0336337 -0.0619692 -0.0553344 -0.0321209 -0.122117 -0.0321209 -0.038191 -0.0703054 -0.07326 -0.0659773 -0.0321209 -0.0703944 -0.380319 0.367865 -0.0659773 -0.060258 -0.0695893 -0.152095 -0.0257783 -0.11734 -0.0642029 0.117438 -0.0857545 -0.147466 -0.0535468 -0.0668145 -0.0567108 -0.0668145 -0.0321209 -0.0295236 -0.0528874 -0.060258 -0.0836102 -0.334055 -0.0784952 -0.0722485 -0.074892 -0.0567108 -0.174656 -0.0619692 -0.0336337 -0.229918 -0.290697
-1.92624 -0.304528 0.219628 -0.112367 -0.0217613 -0.0601842 -0.0321856 -0.0956005 -0.024506 -0.0762227 -0.0841228 -0.0630502 -0.0209949 -0.0818247 -0.155649 -0.161365 0.278319 -0.071021 -0.13959 -0.257944 -0.231343 0.25979 -0.0231706 -0.0305151 -0.106216 -0.0841228 -0.10301 -0.191139 -0.066566 -0.14018 -0.0688299 0.215089 -0.204735 -0.071611 -0.0505158 0.111654 -0.0321856 0.278319 -0.213622 -0.0784018 -0.0977511 -0.0907158 -0.330997 -0.0505158 -0.0841228 -0.391605 -0.427506 -0.0692212 -0.0505158 -0.0581018 -0.109442 -0.0668743 -0.0500509 -0.0544823 0.122307 -0.0818247 -0.260769 -0.23006 -0.0738768 -0.0678123 0.135449 -0.311447 -0.198695 -0.0305151 -0.176991 -0.0808727 0.204717 -0.0751391 -0.0530729 -0.111595 -0.0685354 -0.133697 -0.31742 -0.155035 -0.0669278 -0.120836 -0.020718 -0.0874244 -0.0818247 -0.144057 -0.0342568 -0.0500509 -0.0685354 -0.0850067 -0.0581018 -0.066566 0.278319 -0.0762227 -0.0371487 -0.0371487 -0.0630502 -0.0526534 -0.0305151 -0.113052 -0.0305151 -0.0357369 -0.0710952 -0.0745654 -0.0668743 -0.0305151 -0.0713535 -0.381622 -0.0342568 -0.0668743 -0.0464273 -0.0704067 -0.13774 -0.0231706 -0.1147 -0.0604681 -0.231143 -0.0828054 -0.14931 -0.0505158 -0.066566 0.278319 -0.066566 -0.0305151 -0.024506 -0.0497664 -0.0464273 -0.0670798 -0.625385 -0.0799019 -0.0804869 -0.06401 0.278319 -0.162543 -0.0630502 -0.0371487 -0.213696 -0.271601
-1.84549 -0.303916 -0.0925952 -0.104147 -0.0222928 -0.0612524 -0.0286713 -0.0921474 -0.0251505 -0.0863367 -0.0855768 0.33609 -0.0213932 -0.0833045 -0.136172 -0.166391 -0.0498175 -0.0670438 -0.147937 -0.257546 -0.239939 -0.0468043 -0.0237362 -0.031157 -0.108335 -0.0855768 -0.104857 -0.196444 -0.0628724 -0.136584 -0.0701221 -0.103643 -0.195322 -0.0803117 -0.0513391 -0.184036 -0.0286713 -0.0498175 -0.178476 -0.0891895 -0.0979576 -0.0768995 -0.591247 -0.0513391 -0.0855768 -0.384088 -0.0525035 -0.0703239 -0.0513391 -0.0514898 -0.101322 -0.0751587 -0.0509306 -0.048325 -0.176805 -0.0833045 -0.274382 -0.240783 -0.0750542 -0.0631152 -0.161833 -0.309346 -0.188804 -0.031157 -0.177493 -0.0826971 -0.0868556 -0.0768943 -0.0556673 -0.117659 -0.0778359 -0.119559 -0.318064 -0.149985 -0.074962 -0.111021 -0.0225496 -0.0890078 -0.0833045 -0.146903 -0.0305201 -0.0509306 -0.0778359 -0.087013 -0.0514898 -0.0628724 -0.0498175 -0.0863367 -0.0327038 -0.0327038 0.33609 -0.0555205 -0.031157 -0.0915924 -0.031157 -0.0367849 -0.0804629 -0.0758271 -0.0751587 -0.031157 -0.0802476 -0.0219227 -0.0305201 -0.0751587 -0.047256 -0.0786591 -0.13056 -0.0237362 -0.122499 -0.0616046 -0.218465 -0.0849324 -0.152286 -0.0513391 -0.0628724 -0.0498175 -0.0628724 -0.031157 -0.0251505 -0.0504863 -0.047256 -0.0574569 -0.635037 -0.081253 -0.0747652 -0.0651454 -0.0498175 -0.141722 0.33609 -0.0327038 -0.207636 -0.26688
-1.93159 0.0619545 -0.101967 -0.105204 -0.0308114 -0.0646956 -0.031885 -0.0904922 -0.0304335 -0.0753685 -0.0834441 -0.0689705 -0.024566 -0.0811546 -0.145861 -0.177037 -0.0522203 -0.0720093 -0.145003 -0.268041 -0.250328 -0.0490114 -0.032839 -0.0325172 -0.111445 -0.0834441 -0.103968 -0.208995 -0.0674831 0.244169 -0.0739789 -0.104146 -0.220388 -0.07843 -0.0673525 -0.182596 -0.031885 -0.0522203 -0.19591 -0.0865436 -0.106545 -0.0851925 -0.222741 -0.0673525 -0.0834441 -0.3972 -0.0574506 -0.0684526 -0.0673525 -0.0604335 -0.106944 -0.0657403 -0.0590777 -0.0566558 -0.187703 -0.0811546 0.121654 -0.256402 -0.0730537 -0.0612572 -0.189215 -0.380297 -0.187144 -0.0325172 -0.200751 -0.0952888 -0.0955566 -0.0750075 -0.0589355 -0.128591 -0.0755366 -0.124635 -0.375667 -0.146207 -0.073213 -0.123914 -0.0225601 -0.0867067 -0.0811546 -0.143161 -0.033948 -0.0590777 -0.0755366 -0.0932176 -0.0604335 -0.0674831 -0.0522203 -0.0753685 -0.0485601 -0.0485601 -0.0689705 -0.0566091 -0.0325172 -0.107034 -0.0325172 -0.0385708 -0.0703014 -0.0736609 -0.0657403 -0.0325172 -0.0701382 -0.401171 -0.033948 -0.0657403 -0.0493757 -0.0774403 -0.126786 -0.032839 -0.124723 -0.0648373 -0.237025 -0.0904706 -0.148405 -0.0673525 -0.0674831 -0.0522203 -0.0674831 -0.0325172 -0.0304335 -0.0534563 -0.0493757 -0.0554263 -0.306027 -0.0789263 -0.0729736 -0.0688785 -0.0522203 0.263027 -0.0689705 -0.0485601 -0.272253 0.0791578
-1.9212 -0.339708 -0.097673 -0.11044 -0.0243586 -0.071815 -0.0378432 -0.0968327 -0.0370218 -0.0757359 -0.0838351 -0.0691127 -0.0246456 -0.0813064 -0.147777 -0.181203 -0.0482453 -0.0650082 -0.138916 -0.290183 0.136244 -0.0453319 -0.0259305 -0.038414 -0.118151 -0.0838351 -0.117555 -0.21176 -0.0609692 -0.150186 -0.0838843 -0.105348 0.179145 -0.0711708 -0.0541632 -0.1844 -0.0378432 -0.0482453 -0.196334 -0.0865892 -0.0976298 -0.0879879 -0.638106 -0.0541632 -0.0838351 -0.0334984 -0.0708414 -0.0687612 -0.0541632 -0.0496244 -0.107135 -0.0661323 -0.0536929 -0.046578 -0.194957 -0.0813064 -0.260852 -0.250343 -0.073384 -0.0669287 -0.155526 -0.339823 -0.205488 -0.038414 -0.195859 -0.0947717 -0.0915755 -0.0751619 -0.0531932 0.303985 -0.0755789 -0.12447 0.0341246 -0.146319 -0.0665189 -0.107383 -0.0290835 -0.0868686 -0.0813064 -0.143622 -0.0403464 -0.0536929 -0.0755789 -0.102066 -0.0496244 -0.0609692 -0.0482453 -0.0757359 -0.0312174 -0.0312174 -0.0691127 -0.0600118 -0.038414 -0.0959193 -0.038414 -0.0416821 -0.070643 -0.081811 -0.0661323 -0.038414 -0.0705579 -0.393362 -0.0403464 -0.0661323 -0.0618914 -0.0699314 -0.132101 -0.0259305 -0.11833 -0.0733998 0.163427 -0.093321 -0.148877 -0.0541632 -0.0609692 -0.0482453 -0.0609692 -0.038414 -0.0370218 -0.0535291 -0.0618914 -0.0609857 -0.299729 -0.0877814 -0.0727932 -0.0765533 -0.0482453 -0.150537 -0.0691127 -0.0312174 -0.231203 -0.290915
-1.89005 -0.302384 -0.108909 0.245175 -0.0208662 -0.0662239 -0.0395212 -0.0896589 -0.0246691 -0.076842 -0.0848194 -0.0636324 -0.0201645 -0.0824894 0.22133 -0.155551 -0.0588764 -0.0660786 -0.140742 -0.261304 -0.232638 -0.0553201 -0.0222132 -0.0309403 -0.107042 -0.0848194 -0.104008 -0.191564 -0.0619697 -0.132294 -0.0691077 0.241724 -0.19991 -0.0723117 -0.0508011 -0.1964 -0.0395212 -0.0588764 0.147542 -0.0791825 -0.0918614 -0.0806162 -0.606187 -0.0508011 -0.0848194 -0.0500687 -0.422363 -0.0696318 -0.0508011 -0.0613893 0.248319 -0.0674099 -0.0552729 -0.0575882 0.150047 -0.0824894 -0.254752 -0.229323 -0.0743148 -0.0681247 -0.176517 -0.305738 -0.1968 -0.0309403 -0.168555 -0.0786353 -0.102144 -0.0842288 -0.0499566 -0.115257 -0.0692148 -0.134121 -0.32766 -0.148163 -0.0675812 -0.11935 -0.0210381 -0.0881357 -0.0824894 -0.153519 -0.0420737 -0.0552729 -0.0692148 -0.08269 -0.0613893 -0.0619697 -0.0588764 -0.076842 -0.0326002 -0.0326002 -0.0636324 -0.0512109 -0.0309403 -0.108283 -0.0309403 -0.033697 -0.0716723 -0.0751784 -0.0674099 -0.0309403 -0.0719255 -0.383156 -0.0420737 -0.0674099 -0.0509326 -0.0709906 0.215931 -0.0222132 -0.120589 -0.0607207 -0.230419 -0.0806147 -0.159478 -0.0508011 -0.0619697 -0.0588764 -0.0619697 -0.0309403 -0.0246691 -0.0547679 -0.0509326 0.321265 -0.651676 -0.0805591 -0.0737067 -0.0704992 -0.0588764 -0.154558 -0.0636324 -0.0326002 -0.203909 -0.261483
-1.85167 -0.30488 -0.0928048 -0.10436 -0.0223837 -0.0614586 -0.0288472 -0.0993756 -0.0236081 -0.0774948 -0.0856839 -0.0641773 -0.0204666 -0.0833444 -0.136523 -0.158355 -0.0499271 -0.0672917 -0.1421 -0.253083 -0.230291 -0.0469054 -0.0238325 -0.0294074 -0.106841 -0.0856839 -0.103459 -0.1872 -0.0631031 -0.139106 -0.0702097 -0.10369 -0.193845 -0.0729371 -0.0513341 -0.193216 -0.0288472 -0.0499271 -0.178949 -0.0800351 -0.0932047 -0.0746019 -0.576134 -0.0513341 -0.0856839 -0.373589 -0.421647 0.307253 -0.0513341 -0.0517377 -0.101313 -0.0753367 -0.0509877 -0.0485562 -0.17714 -0.0833444 -0.255388 0.132686 0.328593 -0.0631097 -0.157847 -0.30781 -0.19798 -0.0294074 -0.166906 -0.0799038 -0.0870488 -0.0963002 -0.0507561 -0.114512 -0.069958 -0.13903 -0.317759 0.218011 -0.0681669 -0.111482 -0.0212766 -0.0890507 -0.0833444 0.210683 -0.0307076 -0.0509877 -0.069958 -0.0821116 -0.0517377 -0.0631031 -0.0499271 -0.0774948 -0.0329415 -0.0329415 -0.0641773 -0.0497566 -0.0294074 -0.0919326 -0.0294074 -0.0343933 -0.0722813 -0.0760536 -0.0753367 -0.0294074 -0.080435 -0.391896 -0.0307076 -0.0753367 -0.0473443 -0.0716332 -0.149848 -0.0238325 -0.116833 -0.0616798 -0.213515 -0.0778168 0.204695 -0.0513341 -0.0631031 -0.0499271 -0.0631031 -0.0294074 -0.0236081 -0.0507627 -0.0473443 -0.0573904 -0.632296 -0.0814992 -0.0839052 -0.0653673 -0.0499271 -0.139112 -0.0641773 -0.0329415 -0.211869 -0.269952
-1.83491 -0.319267 -0.0923007 -0.113662 -0.0220763 0.356916 -0.032789 -0.091547 -0.0265141 -0.0776467 -0.0857839 -0.0640723 -0.0212384 -0.0833708 -0.145697 -0.162456 -0.0497392 -0.0671713 -0.142155 -0.269579 -0.240767 -0.0467303 -0.0234987 -0.0310572 -0.109758 -0.0857839 -0.104845 -0.193735 -0.0629915 -0.139037 -0.0765215 -0.1084 -0.206697 -0.0729749 -0.0558149 -0.18952 -0.032789 -0.0497392 -0.187401 -0.0798347 -0.0924096 -0.0737985 -0.586953 -0.0558149 -0.0857839 -0.0207617 -0.434709 -0.0704587 -0.0558149 -0.0514138 -0.110318 -0.0679584 -0.0554454 -0.0482536 -0.185729 -0.0833708 -0.260869 -0.236267 -0.0751986 -0.0689627 -0.158962 -0.315658 -0.20403 -0.0310572 -0.17125 -0.0817271 -0.0865797 -0.0768998 -0.0503917 -0.121637 -0.0697865 -0.119348 -0.340621 -0.149854 -0.0682027 -0.111069 -0.022175 -0.0890786 -0.0833708 -0.147043 -0.0349259 -0.0554454 -0.0697865 -0.0840567 -0.0514138 -0.0629915 -0.0497392 -0.0776467 -0.032647 -0.032647 -0.0640723 -0.0524877 -0.0310572 -0.0913143 -0.0310572 -0.0338844 -0.0724224 -0.075908 -0.0679584 -0.0310572 -0.0725103 -0.387337 -0.0349259 -0.0679584 -0.0565066 -0.071588 -0.135389 -0.0234987 -0.12156 -0.067053 -0.227419 -0.0820118 -0.152426 -0.0558149 -0.0629915 -0.0497392 -0.0629915 -0.0310572 -0.0265141 -0.0552058 -0.0565066 -0.0626551 -0.294 -0.0813397 -0.0745189 0.381705 -0.0497392 -0.140943 -0.0640723 -0.032647 -0.212633 -0.276094
-1.8585 0.0570342 -0.0917838 -0.113544 -0.0250914 -0.0663809 -0.0301985 -0.0913317 -0.0264029 -0.0772201 -0.085273 -0.0637314 -0.0224966 -0.0828808 -0.1426 -0.162899 -0.0494496 -0.0666264 -0.141177 -0.262455 -0.236091 -0.0464594 -0.0267007 -0.0288379 -0.109158 -0.085273 -0.102434 -0.19212 -0.0624819 -0.157324 -0.0760946 -0.108147 -0.207623 -0.0723658 -0.0616506 -0.18283 -0.0301985 -0.0494496 -0.184054 -0.0793459 -0.0951753 -0.0734386 -0.597673 -0.0616506 -0.085273 -0.393323 -0.434112 -0.0698902 -0.0616506 -0.0510238 0.269922 -0.067427 0.352932 -0.0478886 -0.182482 -0.0828808 -0.273021 -0.246482 -0.0745903 -0.0626182 -0.163041 0.0646651 -0.191452 -0.0288379 -0.174771 -0.0875451 -0.0860971 -0.0764755 -0.0499699 -0.120747 -0.0693603 -0.118698 -0.350976 -0.149153 -0.0676356 -0.110197 -0.0220797 -0.0885543 -0.0828808 -0.146054 -0.0321555 0.352932 -0.0693603 -0.0829575 -0.0510238 -0.0624819 -0.0494496 -0.0772201 -0.0376092 -0.0376092 -0.0637314 -0.0521546 -0.0288379 -0.0907119 -0.0288379 -0.033737 -0.0720247 -0.0755579 -0.067427 -0.0288379 -0.0719419 -0.384713 -0.0321555 -0.067427 -0.0508351 -0.0710056 -0.135003 -0.0267007 -0.120889 -0.0666783 -0.222482 -0.080956 -0.151406 -0.0616506 -0.0624819 -0.0494496 -0.0624819 -0.0288379 -0.0264029 -0.0550503 -0.0508351 -0.0626894 -0.296002 -0.0809658 -0.0743914 -0.0706783 -0.0494496 -0.143741 -0.0637314 -0.0376092 -0.240801 -0.310521
-1.93765 -0.307045 -0.105894 -0.111272 -0.0226614 -0.0589512 -0.0319028 -0.0920673 -0.0277415 -0.0756135 -0.0836412 -0.0681926 -0.038465 -0.0812868 -0.139749 0.163692 -0.0518935 -0.0715369 -0.138532 0.0795294 0.0923897 -0.0487085 -0.0241353 -0.0507898 -0.108899 -0.0836412 -0.128035 0.123361 -0.067044 -0.141939 -0.067611 -0.103784 -0.208655 -0.0710131 -0.0496723 -0.188067 -0.0319028 -0.0518935 -0.193588 -0.0852982 -0.116007 0.319613 -0.274525 -0.0496723 -0.0836412 -0.411709 -0.132041 -0.0689084 -0.0496723 -0.0538762 -0.0976777 -0.0663159 -0.049084 -0.0505403 -0.191607 -0.0812868 -0.26272 -0.232182 -0.073543 -0.0671598 -0.17148 -0.332117 -0.189514 -0.0507898 0.185935 -0.0994682 -0.0991843 -0.0749973 -0.071771 -0.141691 -0.0744658 -0.128872 -0.328128 -0.146568 -0.0663715 -0.117386 -0.0242198 -0.0868485 -0.0812868 -0.143604 -0.0339639 -0.049084 -0.0744658 0.257543 -0.0538762 -0.067044 -0.0518935 -0.0756135 -0.0373049 -0.0373049 -0.0681926 -0.0580388 -0.0507898 -0.104413 -0.0507898 0.370567 -0.0705286 -0.0807535 -0.0663159 -0.0507898 -0.0707559 -0.389744 -0.0339639 -0.0663159 -0.0454554 -0.069695 -0.12674 -0.0241353 -0.12458 -0.0594179 0.108509 -0.121294 -0.148848 -0.0496723 -0.067044 -0.0518935 -0.067044 -0.0507898 -0.0277415 -0.0595929 -0.0454554 -0.055387 -0.677203 -0.0866343 -0.0728872 -0.0626868 -0.0518935 -0.172066 -0.0681926 -0.0373049 -0.229874 -0.271252
-1.85167 -0.304257 -0.0929195 -0.104406 -0.022332 -0.0613786 -0.0288019 -0.0920219 -0.0235452 -0.0860355 -0.0855448 -0.0708755 -0.0204092 -0.083311 -0.136542 -0.158048 -0.0499365 -0.0672262 -0.147778 -0.252871 -0.23104 -0.0469144 -0.0237772 -0.0292983 -0.106745 -0.0855448 -0.103309 -0.186731 -0.0630419 -0.138735 -0.0701741 -0.103823 -0.1937 -0.0801429 -0.0513212 -0.184145 -0.0288019 -0.0499365 -0.179059 -0.0798289 -0.0930022 -0.074601 -0.57824 -0.0513212 -0.0855448 -0.376646 -0.430463 -0.0780452 -0.0513212 -0.0516681 -0.101383 0.311485 -0.0509309 -0.0484911 -0.177329 -0.083311 -0.269689 0.133099 -0.0833504 -0.0632783 -0.159695 -0.310435 -0.188908 -0.0292983 -0.169762 -0.0817121 -0.0871565 -0.0766082 -0.0506221 -0.115471 -0.0697802 -0.119478 -0.318531 -0.157505 -0.074806 -0.111356 -0.0225763 -0.089015 -0.083311 -0.154305 -0.0306593 -0.0509309 -0.0697802 -0.0818518 -0.0516681 -0.0630419 -0.0499365 -0.0860355 -0.0328046 -0.0328046 -0.0708755 -0.0530228 -0.0292983 -0.0919618 -0.0292983 -0.0342935 -0.080184 -0.0760046 0.311485 -0.0292983 0.333128 -0.0390337 -0.0306593 0.311485 -0.0473485 -0.0785055 -0.130336 -0.0237772 -0.122581 -0.0616487 -0.213301 -0.0797011 -0.159675 -0.0513212 -0.0630419 -0.0499365 -0.0630419 -0.0292983 -0.0235452 -0.0506856 -0.0473485 -0.0575225 -0.632595 -0.0814464 -0.0746015 -0.0652815 -0.0499365 -0.138987 -0.0708755 -0.0328046 -0.21136 -0.269386
-2.0201 -0.352476 -0.102342 -0.113814 -0.0269222 -0.0624377 -0.033062 -0.09285 -0.0282943 -0.0738916 -0.0818339 -0.0661223 0.385349 -0.0795357 -0.143055 0.142666 -0.0504102 -0.0691343 -0.135214 0.0480349 0.0675774 -0.0473229 -0.0286655 -0.0531018 -0.107701 -0.0818339 -0.127903 0.100015 -0.0647995 -0.168212 -0.0718275 -0.100994 -0.222007 -0.0690593 -0.0519152 -0.183151 -0.033062 -0.0504102 -0.195188 -0.0826682 -0.118995 -0.123968 -0.331032 -0.0519152 -0.0818339 -0.430939 -0.167789 -0.0672565 -0.0519152 -0.0576027 -0.104103 -0.0645985 -0.0574604 -0.0540126 -0.188002 -0.0795357 -0.284549 -0.248826 -0.0717768 -0.0650943 -0.188954 0.0318173 -0.188112 -0.0531018 0.144054 0.305112 -0.0959004 -0.0735221 -0.0677627 -0.156999 -0.0721832 -0.125333 -0.370164 -0.143317 -0.0645508 -0.118607 -0.0264052 -0.0849747 -0.0795357 -0.14049 -0.0352113 -0.0574604 -0.0721832 0.261221 -0.0576027 -0.0647995 -0.0504102 -0.0738916 -0.0422972 -0.0422972 -0.0661223 -0.0705143 -0.0531018 -0.106233 -0.0531018 -0.0753426 -0.0689247 -0.0784815 -0.0645985 -0.0531018 -0.0689198 -0.392693 -0.0352113 -0.0645985 -0.0477739 -0.0677932 -0.123965 -0.0286655 -0.127099 -0.0629681 0.10798 0.289498 -0.145626 -0.0519152 -0.0647995 -0.0504102 -0.0647995 -0.0531018 -0.0282943 -0.0634616 -0.0477739 -0.053989 -0.348351 -0.084188 -0.0713852 -0.0664619 -0.0504102 0.218993 -0.0661223 -0.0422972 0.154374 -0.315098
-1.97176 0.0499382 -0.100405 -0.108668 -0.0279399 -0.0703042 -0.0371384 -0.0950523 0.382606 -0.0747927 -0.0827566 -0.0683487 -0.024261 -0.0900991 -0.149831 -0.177661 -0.0517628 -0.0713103 -0.137024 -0.278402 0.150405 -0.0485823 -0.0297525 -0.0377306 0.291998 -0.0827566 -0.11622 -0.21469 -0.066829 -0.16606 -0.0827412 -0.107927 0.194952 -0.0700712 -0.059198 -0.185898 -0.0371384 -0.0517628 -0.197972 -0.085536 -0.105855 -0.0872762 -0.232011 -0.059198 -0.0827566 -0.0446069 -0.072396 -0.0678931 -0.059198 -0.053755 -0.110495 -0.0652896 -0.0583465 -0.0504247 -0.195982 -0.0900991 -0.273592 -0.253321 -0.0724564 -0.0660843 -0.169354 -0.360783 -0.202062 -0.0377306 -0.200716 -0.0942304 -0.0940741 -0.0742749 -0.0580774 -0.157622 -0.074661 -0.1228 0.00936309 -0.144506 -0.0654937 -0.117056 -0.0281262 -0.0963335 -0.0900991 -0.141874 -0.039573 -0.0583465 -0.074661 -0.101046 -0.053755 -0.066829 -0.0517628 -0.0747927 -0.0357094 -0.0357094 -0.0683487 -0.06141 -0.0377306 -0.0993052 -0.0377306 -0.0417124 -0.069764 -0.0811102 -0.0652896 -0.0377306 -0.0696578 -0.390152 -0.039573 -0.0652896 -0.0602342 -0.0689014 -0.130283 -0.0297525 -0.116533 -0.0724098 -0.259997 -0.0945966 -0.147064 -0.059198 -0.066829 -0.0517628 -0.066829 -0.0377306 0.382606 -0.0526858 -0.0602342 -0.059984 -0.325433 -0.0870336 -0.0719056 -0.0749338 -0.0517628 -0.159331 -0.0683487 -0.0357094 -0.246814 -0.317512
-1.81019 -0.302318 -0.0936345 -0.105285 -0.0212333 -0.0620442 -0.0290328 -0.0905423 -0.0237699 -0.0782479 0.313478 -0.0647707 -0.0205786 -0.0841403 -0.13767 -0.159559 -0.0503442 -0.0679025 0.221893 -0.25513 -0.230998 -0.0472972 -0.0226036 -0.0295765 -0.107797 0.313478 -0.104369 -0.188486 -0.0636754 -0.134921 -0.0709344 -0.104667 -0.193357 -0.0735166 -0.0518888 -0.185957 -0.0290328 -0.0503442 -0.180493 -0.0808219 -0.0941466 -0.0751909 -0.576493 -0.0518888 0.313478 -0.375781 -0.422508 -0.0710851 -0.0518888 -0.0521139 -0.102394 -0.0685402 -0.0515487 -0.0489093 -0.178725 -0.0841403 -0.264359 -0.232571 -0.0758682 -0.0638555 -0.159072 -0.304076 -0.190896 -0.0295765 -0.166952 -0.0781984 -0.0878261 -0.0775821 -0.051177 -0.112051 -0.0706441 -0.120757 -0.314128 -0.151493 -0.0687098 -0.112404 -0.0202848 -0.0899024 -0.0841403 -0.148346 -0.030905 -0.0515487 -0.0706441 -0.0825823 -0.0521139 -0.0636754 -0.0503442 -0.0782479 -0.0332486 -0.0332486 -0.0647707 -0.0490069 -0.0295765 -0.0926952 -0.0295765 -0.0345956 -0.072983 -0.0768074 -0.0685402 -0.0295765 -0.0731317 -0.39295 -0.030905 -0.0685402 -0.047866 -0.0797219 -0.131743 -0.0226036 -0.12413 -0.062315 -0.215176 -0.078266 -0.15378 -0.0518888 -0.0636754 -0.0503442 -0.0636754 -0.0295765 -0.0237699 -0.0511302 -0.047866 -0.0579897 -0.631567 -0.0823077 -0.0754663 -0.0659902 -0.0503442 -0.140198 -0.0647707 -0.0332486 -0.208098 -0.266945
-1.85412 -0.306968 -0.0993427 -0.103711 -0.0221187 -0.0612556 -0.0307745 -0.0905378 -0.0250487 -0.0774799 -0.0855603 -0.0639579 -0.0213779 -0.0831906 -0.147299 -0.165304 -0.0534075 0.327007 -0.141883 -0.257543 -0.235902 -0.0501253 -0.0235516 -0.0312737 -0.10812 -0.0855603 -0.10494 -0.195618 0.305742 -0.140229 -0.0700447 -0.106776 -0.195293 -0.0728163 -0.0511601 -0.187138 -0.0307745 -0.0534075 -0.193509 -0.0796461 -0.100754 -0.0798634 -0.244794 -0.0511601 -0.0855603 -0.378991 -0.43401 -0.0703389 -0.0511601 -0.0615948 -0.100757 -0.0678684 -0.0508101 -0.0577452 -0.185328 -0.0831906 -0.260589 -0.233636 -0.0750709 -0.0630542 -0.174111 -0.312432 -0.188588 -0.0312737 -0.175837 -0.0799777 -0.0931008 -0.0767363 -0.0546615 -0.113392 -0.0696218 -0.122553 -0.321252 -0.149863 -0.0680541 0.247912 -0.021054 -0.088886 -0.0831906 -0.146761 -0.0327562 -0.0508101 -0.0696218 -0.0871547 -0.0615948 0.305742 -0.0534075 -0.0774799 -0.0351149 -0.0351149 -0.0639579 -0.0513192 -0.0312737 -0.104627 -0.0312737 -0.0368113 -0.0722669 -0.0757899 -0.0678684 -0.0312737 -0.0724146 -0.385554 -0.0327562 -0.0678684 -0.0472317 -0.071516 -0.12995 -0.0235516 -0.116454 -0.0615361 -0.220722 -0.0822504 -0.152132 -0.0511601 0.305742 -0.0534075 0.305742 -0.0312737 -0.0250487 -0.0505034 -0.0472317 -0.0569708 -0.633535 -0.0812142 -0.074637 -0.0651499 -0.0534075 -0.15418 -0.0639579 -0.0351149 -0.214954 -0.27409
-1.94695 -0.0159898 -0.0932439 -0.104985 -0.036257 -0.0635878 -0.0310699 -0.0931931 -0.0291147 -0.0753802 -0.0833423 -0.0618673 -0.0247428 -0.0809676 -0.134971 -0.159377 -0.0480749 -0.064429 -0.137744 -0.258739 -0.251603 -0.0451738 -0.0386124 -0.0301929 -0.109945 -0.0833423 -0.101632 -0.190042 -0.0604277 0.203944 -0.0825096 -0.100199 0.200668 -0.0703228 -0.064558 -0.178318 -0.0310699 -0.0480749 -0.179648 -0.0769756 -0.106316 -0.074781 -0.656016 -0.064558 -0.0833423 -0.404269 -0.461177 -0.0755869 -0.064558 -0.0493983 -0.111111 -0.0728395 -0.0633843 -0.046367 -0.178326 -0.0809676 -0.294421 0.112264 -0.0807196 -0.0611343 -0.1706 -0.0183296 -0.191045 -0.0301929 -0.190708 0.339547 -0.0874542 -0.0746647 -0.0480301 0.294899 -0.0672992 -0.119721 -0.0238964 -0.152936 -0.0657315 -0.106633 -0.0256008 -0.0865067 -0.0809676 -0.149922 -0.0330913 -0.0633843 -0.0672992 -0.0853396 -0.0493983 -0.0604277 -0.0480749 -0.0753802 -0.046941 -0.046941 -0.0618673 -0.0564836 -0.0301929 -0.0917281 -0.0301929 -0.0324361 -0.0703109 -0.073483 -0.0728395 -0.0301929 -0.077763 -0.387359 -0.0330913 -0.0728395 -0.0537923 -0.0691038 -0.126639 -0.0386124 -0.117086 -0.0722304 -0.23359 -0.0855037 -0.155149 -0.064558 -0.0604277 -0.0480749 -0.0604277 -0.0301929 -0.0291147 -0.0530394 -0.0537923 -0.0556358 -0.375561 -0.0787358 -0.0726175 -0.0676867 -0.0480749 -0.150779 -0.0618673 -0.046941 0.122374 0.0480528
